 -1.20542329e-02	  6.64858194e-03	 -2.77365651e-03	  4.18954808e-03	  -5.68315201e-03	 -4.63479050e-02	  2.10633986e-02	  6.76541450e-03	  -2.90766987e-03	  8.63354746e-03	 -7.91609846e-03	  4.34823986e-03	  -1.08720474e-02	 -7.28967972e-03	 -2.81542819e-03	  1.69245228e-02	   6.29622303e-03	  3.94005626e-02	  1.84245743e-02	 -8.60996172e-03	   1.55995376e-02	 -1.10430713e-03	  2.33465582e-02	 -7.85530824e-03	  -3.05567961e-02	  4.02803672e-03	  5.83361078e-04	  1.92601774e-02	   2.34655291e-02	  6.23266818e-03	  2.40253005e-02	 -1.53862289e-03	   2.40595024e-02	 -1.64400935e-02	 -3.65593494e-03	 -6.60798699e-03	  -4.54385690e-02	 -2.24281941e-02	  1.52957737e-02	 -2.75993738e-02	  -2.03805789e-03	 -2.01395806e-02	  7.00627081e-03	 -1.86293374e-03	  -1.10859415e-02	 -1.98238194e-02	 -8.72322265e-03	 -5.91053255e-03	   3.50133679e-03	 -5.39144268e-03	  9.71236546e-03	  9.15063731e-03	  -2.66483091e-02	 -1.82559132e-03	  5.26545278e-04	 -6.95054606e-03	   2.19855849e-02	  8.74236226e-03	 -3.60448472e-03	 -1.38255279e-03	  -6.29063742e-03	  4.81793098e-03	 -2.90069729e-02	  7.25413999e-03	   1.93718970e-02	 -1.29399057e-02	 -9.88794584e-03	  5.06793289e-03	   2.76050624e-02	  1.91533994e-02	 -3.60656832e-03	  5.24199521e-03	   1.64628215e-03	  1.71820391e-02	 -7.25793559e-03	  1.93535034e-02	  -5.48452139e-03	 -3.93158160e-02	 -1.45880971e-02	  4.33841208e-03	  -4.09409637e-03	  2.47091968e-02	  6.02593354e-05	 -6.77159114e-05	  -5.52345812e-03	  1.24185244e-02	  3.37387226e-03	  3.08016827e-03	  -5.11869648e-03	  8.43173009e-04	 -3.31809581e-03	 -7.73627637e-03	   1.61602702e-02	  4.74086450e-03	 -6.11148076e-03	  1.10371727e-02	   9.12823807e-03	 -1.41853699e-03	 -1.25712175e-02	 -3.01170554e-02	   1.79140491e-03	 -4.06908663e-03	  1.24121131e-02	 -2.93781403e-02	   9.27208923e-03	  2.09010169e-02	  6.07129093e-03	  1.79384612e-02	   5.24032046e-04	 -1.38425324e-02	  2.41944566e-03	 -6.51521003e-03	   2.33343593e-03	  9.39272065e-03	 -2.54129246e-02	  1.90931447e-02	   1.13783835e-03	  1.20041296e-02	  1.73714757e-02	 -4.59828414e-03
