 0.00681739	 0.00417909	-0.00409335	-0.01471265	-0.00845248	-0.01919826	 -0.03588003	-0.02649065	-0.02394687	 0.00317508	-0.02662756	 0.0221011	 -0.01521807	 0.00412052	-0.04116641	-0.00838993	 0.00040601	 0.01121525	  0.00885263	 0.01193255	-0.04718174	 0.00210507	 0.00595454	-0.00608192	 -0.00752939	 0.01023423	-0.03168384	-0.00412165	-0.01229022	-0.01973318	  0.01587578	 0.04937001	-0.00757282	-0.03017039	-0.03010462	-0.00815982	 -0.00228447	 0.01580942	-0.01638925	 0.00337173	-0.00899544	 0.00803156	 -0.00336781	 0.03182025	 0.01827215	-0.0370604 	-0.00196083	-0.01456651	 -0.00969698	-0.0127403 	 0.01448018	 0.01296941	-0.01097529	 0.00326664	 -0.02322833	 0.03974685	-0.00093196	 0.01176443	-0.00222354	 0.0109739	 -0.03321564	 0.01180224	 0.0201016 	 0.0132077 	 0.002729  	 0.00270665	 -0.02503067	 0.00260731	 0.02675988	-0.02197328	 0.02064498	 0.02652862	  0.04061986	 0.01484674	-0.00681457	-0.02347497	 0.04150079	-0.02479986	 -0.01429778	-0.02614904	-0.00739626	-0.01858109	-0.04257102	-0.00895187
